<?xml version='1.0' encoding='UTF-8'?>
<BIF VERSION="0.3">
  <NETWORK>
    <NAME>UNTITLED</NAME>
    <VARIABLE TYPE="nature">
      <NAME>age</NAME>
      <OUTCOME>0</OUTCOME>
      <OUTCOME>1</OUTCOME>
      <OUTCOME>2</OUTCOME>
      <PROPERTY>weight = None</PROPERTY>
    </VARIABLE>
    <VARIABLE TYPE="nature">
      <NAME>ca</NAME>
      <OUTCOME>0</OUTCOME>
      <OUTCOME>1</OUTCOME>
      <OUTCOME>2</OUTCOME>
      <OUTCOME>3</OUTCOME>
      <PROPERTY>weight = None</PROPERTY>
    </VARIABLE>
    <VARIABLE TYPE="nature">
      <NAME>chol</NAME>
      <OUTCOME>0</OUTCOME>
      <OUTCOME>1</OUTCOME>
      <OUTCOME>2</OUTCOME>
      <PROPERTY>weight = None</PROPERTY>
    </VARIABLE>
    <VARIABLE TYPE="nature">
      <NAME>cp</NAME>
      <OUTCOME>0</OUTCOME>
      <OUTCOME>1</OUTCOME>
      <OUTCOME>2</OUTCOME>
      <OUTCOME>3</OUTCOME>
      <PROPERTY>weight = None</PROPERTY>
    </VARIABLE>
    <VARIABLE TYPE="nature">
      <NAME>exang</NAME>
      <OUTCOME>0</OUTCOME>
      <OUTCOME>1</OUTCOME>
      <PROPERTY>weight = None</PROPERTY>
    </VARIABLE>
    <VARIABLE TYPE="nature">
      <NAME>fbs</NAME>
      <OUTCOME>0</OUTCOME>
      <OUTCOME>1</OUTCOME>
      <PROPERTY>weight = None</PROPERTY>
    </VARIABLE>
    <VARIABLE TYPE="nature">
      <NAME>oldpeak</NAME>
      <OUTCOME>0_0</OUTCOME>
      <OUTCOME>1_0</OUTCOME>
      <PROPERTY>weight = None</PROPERTY>
    </VARIABLE>
    <VARIABLE TYPE="nature">
      <NAME>restecg</NAME>
      <OUTCOME>0</OUTCOME>
      <OUTCOME>1</OUTCOME>
      <OUTCOME>2</OUTCOME>
      <PROPERTY>weight = None</PROPERTY>
    </VARIABLE>
    <VARIABLE TYPE="nature">
      <NAME>sex</NAME>
      <OUTCOME>0</OUTCOME>
      <OUTCOME>1</OUTCOME>
      <PROPERTY>weight = None</PROPERTY>
    </VARIABLE>
    <VARIABLE TYPE="nature">
      <NAME>slope</NAME>
      <OUTCOME>0</OUTCOME>
      <OUTCOME>1</OUTCOME>
      <OUTCOME>2</OUTCOME>
      <PROPERTY>weight = None</PROPERTY>
    </VARIABLE>
    <VARIABLE TYPE="nature">
      <NAME>target</NAME>
      <OUTCOME>0</OUTCOME>
      <OUTCOME>1</OUTCOME>
      <PROPERTY>weight = None</PROPERTY>
    </VARIABLE>
    <VARIABLE TYPE="nature">
      <NAME>thal</NAME>
      <OUTCOME>0</OUTCOME>
      <OUTCOME>1</OUTCOME>
      <OUTCOME>2</OUTCOME>
      <PROPERTY>weight = None</PROPERTY>
    </VARIABLE>
    <VARIABLE TYPE="nature">
      <NAME>thalach</NAME>
      <OUTCOME>0</OUTCOME>
      <OUTCOME>1</OUTCOME>
      <PROPERTY>weight = None</PROPERTY>
    </VARIABLE>
    <VARIABLE TYPE="nature">
      <NAME>trestbps</NAME>
      <OUTCOME>0</OUTCOME>
      <OUTCOME>1</OUTCOME>
      <OUTCOME>2</OUTCOME>
      <PROPERTY>weight = None</PROPERTY>
    </VARIABLE>
    <DEFINITION>
      <FOR>age</FOR>
      <GIVEN>target</GIVEN>
      <GIVEN>thalach</GIVEN>
      <TABLE>0.07692307692307693 0.46153846153846156 0.46153846153846156 0.3130434782608696 0.5652173913043478 0.12173913043478261 0.06976744186046512 0.6744186046511628 0.2558139534883721 0.12121212121212122 0.696969696969697 0.18181818181818182 </TABLE>
    </DEFINITION>
    <DEFINITION>
      <FOR>ca</FOR>
      <GIVEN>target</GIVEN>
      <TABLE>0.8125 0.1328125 0.0390625 0.015625 0.3394495412844037 0.3119266055045872 0.22018348623853212 0.12844036697247707 </TABLE>
    </DEFINITION>
    <DEFINITION>
      <FOR>chol</FOR>
      <TABLE>0.7172995780590717 0.27848101265822783 0.004219409282700422 </TABLE>
    </DEFINITION>
    <DEFINITION>
      <FOR>cp</FOR>
      <GIVEN>exang</GIVEN>
      <GIVEN>target</GIVEN>
      <TABLE>0.09090909090909091 0.2727272727272727 0.4 0.23636363636363636 0.10204081632653061 0.12244897959183673 0.22448979591836735 0.5510204081632653 0.1111111111111111 0.16666666666666666 0.2777777777777778 0.4444444444444444 0.016666666666666666 0.016666666666666666 0.06666666666666667 0.9 </TABLE>
    </DEFINITION>
    <DEFINITION>
      <FOR>exang</FOR>
      <GIVEN>target</GIVEN>
      <TABLE>0.859375 0.140625 0.44954128440366975 0.5504587155963303 </TABLE>
    </DEFINITION>
    <DEFINITION>
      <FOR>fbs</FOR>
      <GIVEN>age</GIVEN>
      <TABLE>0.9791666666666666 0.020833333333333332 0.815068493150685 0.18493150684931506 0.8604651162790697 0.13953488372093023 </TABLE>
    </DEFINITION>
    <DEFINITION>
      <FOR>oldpeak</FOR>
      <GIVEN>target</GIVEN>
      <TABLE>0.9921875 0.0078125 0.8715596330275229 0.12844036697247707 </TABLE>
    </DEFINITION>
    <DEFINITION>
      <FOR>restecg</FOR>
      <GIVEN>oldpeak</GIVEN>
      <TABLE>0.5045045045045045 0.009009009009009009 0.4864864864864865 0.4 0.13333333333333333 0.4666666666666667 </TABLE>
    </DEFINITION>
    <DEFINITION>
      <FOR>sex</FOR>
      <GIVEN>thal</GIVEN>
      <TABLE>0.47761194029850745 0.5223880597014925 0.0 1.0 0.13043478260869565 0.8695652173913043 </TABLE>
    </DEFINITION>
    <DEFINITION>
      <FOR>slope</FOR>
      <GIVEN>oldpeak</GIVEN>
      <GIVEN>target</GIVEN>
      <TABLE>0.6535433070866141 0.2992125984251969 0.047244094488188976 0.29473684210526313 0.6526315789473685 0.05263157894736842 0.0 0.0 1.0 0.14285714285714285 0.5714285714285714 0.2857142857142857 </TABLE>
    </DEFINITION>
    <DEFINITION>
      <FOR>target</FOR>
      <GIVEN>chol</GIVEN>
      <GIVEN>sex</GIVEN>
      <GIVEN>thal</GIVEN>
      <TABLE>0.9555555555555556 0.044444444444444446 0.5 0.5 0.0 1.0 0.7547169811320755 0.24528301886792453 0.4444444444444444 0.5555555555555556 0.2631578947368421 0.7368421052631579 0.7894736842105263 0.21052631578947367 0.5 0.5 0.2 0.8 0.4117647058823529 0.5882352941176471 0.0 1.0 0.08695652173913043 0.9130434782608695 0.5 0.5 0.5 0.5 1.0 0.0 0.5 0.5 0.5 0.5 0.5 0.5 </TABLE>
    </DEFINITION>
    <DEFINITION>
      <FOR>thal</FOR>
      <TABLE>0.5654008438818565 0.046413502109704644 0.3881856540084388 </TABLE>
    </DEFINITION>
    <DEFINITION>
      <FOR>thalach</FOR>
      <GIVEN>exang</GIVEN>
      <GIVEN>slope</GIVEN>
      <TABLE>0.043478260869565216 0.9565217391304348 0.25862068965517243 0.7413793103448276 0.1111111111111111 0.8888888888888888 0.14285714285714285 0.8571428571428571 0.58 0.42 0.5714285714285714 0.42857142857142855 </TABLE>
    </DEFINITION>
    <DEFINITION>
      <FOR>trestbps</FOR>
      <GIVEN>chol</GIVEN>
      <GIVEN>oldpeak</GIVEN>
      <TABLE>0.5279503105590062 0.45962732919254656 0.012422360248447204 0.1111111111111111 0.8888888888888888 0.0 0.36666666666666664 0.5833333333333334 0.05 0.3333333333333333 0.3333333333333333 0.3333333333333333 1.0 0.0 0.0 0.3333333333333333 0.3333333333333333 0.3333333333333333 </TABLE>
    </DEFINITION>
  </NETWORK>
</BIF>
